<?xml version="1.0"?>
<opencv_storage>
<cascade>
  <stageType>BOOST</stageType>
  <featureType>LBP</featureType>
  <height>40</height>
  <width>80</width>
  <stageParams>
    <boostType>GAB</boostType>
    <minHitRate>9.9900001287460327e-01</minHitRate>
    <maxFalseAlarm>5.0000000000000000e-01</maxFalseAlarm>
    <weightTrimRate>9.4999999999999996e-01</weightTrimRate>
    <maxDepth>1</maxDepth>
    <maxWeakCount>100</maxWeakCount></stageParams>
  <featureParams>
    <maxCatCount>256</maxCatCount>
    <featSize>1</featSize></featureParams>
  <stageNum>20</stageNum>
  <stages>
    <!-- stage 0 -->
    <_>
      <maxWeakCount>5</maxWeakCount>
      <stageThreshold>-1.4528166055679321e+00</stageThreshold>
      <weakClassifiers>
        <_>
          <internalNodes>
            0 -1 66 1073680375 -172164427 -1107312641 -271843651
            528367615 -16974338 -1073750785 -1616625968</internalNodes>
          <leafValues>
            -4.3511450290679932e-01 9.1154789924621582e-01</leafValues></_>
        <_>
          <internalNodes>
            0 -1 108 674899827 793214713 -4654597 -1350666947 2146435037
            -1443600900 -1074267148 -2001203220</internalNodes>
          <leafValues>
            -4.9515655636787415e-01 7.3898589611053467e-01</leafValues></_>
        <_>
          <internalNodes>
            0 -1 3 -1009157641 -195659426 2009335605 -832824876
            -1299906020 -79034359 -434689260 -175107452</internalNodes>
          <leafValues>
            -6.5190780162811279e-01 6.4170104265213013e-01</leafValues></_>
        <_>
          <internalNodes>
            0 -1 118 -219615745 788332543 -268566531 784252796 -16777996
            -1074987271 -67766283 -1904952980</internalNodes>
          <leafValues>
            -5.6229501962661743e-01 6.6217863559722900e-01</leafValues></_>
        <_>
          <internalNodes>
            0 -1 32 -1233969287 437258385 -778774435 1595174104
            1287989592 -73029480 -94289672 -1146860008</internalNodes>
          <leafValues>
            -6.0195147991180420e-01 6.4292806386947632e-01</leafValues></_></weakClassifiers></_>
    <!-- stage 1 -->
    <_>
      <maxWeakCount>5</maxWeakCount>
      <stageThreshold>-1.5887256860733032e+00</stageThreshold>
      <weakClassifiers>
        <_>
          <internalNodes>
            0 -1 39 1067473 2003730215 493945151 -537360112 939458809
            -40965 159225853 -1081590596</internalNodes>
          <leafValues>
            -5.0620687007904053e-01 8.7657141685485840e-01</leafValues></_>
        <_>
          <internalNodes>
            0 -1 52 1141274495 1999929143 -1879279683 -1073827911
            -302023191 -1082138625 -1359496486 789322679</internalNodes>
          <leafValues>
            -4.6747928857803345e-01 7.5720161199569702e-01</leafValues></_>
        <_>
          <internalNodes>
            0 -1 119 62036393 -2053668000 1896059287 -1286104824
            -1610429443 -774141276 -1440679955 759962272</internalNodes>
          <leafValues>
            -6.6430914402008057e-01 5.6568098068237305e-01</leafValues></_>
        <_>
          <internalNodes>
            0 -1 60 930357589 -1418903554 1340365421 -36933633
            -1412537365 -1110906690 1962735037 -1107804428</internalNodes>
          <leafValues>
            -5.7418888807296753e-01 6.1820328235626221e-01</leafValues></_>
        <_>
          <internalNodes>
            0 -1 131 2034282869 -581533612 16887885 1603080708 539080090
            1390874804 704684575 1914224810</internalNodes>
          <leafValues>
            -6.0653162002563477e-01 5.8756786584854126e-01</leafValues></_></weakClassifiers></_>
    <!-- stage 2 -->
    <_>
      <maxWeakCount>7</maxWeakCount>
      <stageThreshold>-1.5854582786560059e+00</stageThreshold>
      <weakClassifiers>
        <_>
          <internalNodes>
            0 -1 55 -1224804165 -44053025 -1208031267 2105257662
            2105441774 -76055121 -192974883 779575261</internalNodes>
          <leafValues>
            -4.0452262759208679e-01 8.9800995588302612e-01</leafValues></_>
        <_>
          <internalNodes>
            0 -1 33 -1350639620 1005452965 -35844 -105119922 -402653217
            -1612202011 -524293 997998588</internalNodes>
          <leafValues>
            -4.3896311521530151e-01 7.1638828516006470e-01</leafValues></_>
        <_>
          <internalNodes>
            0 -1 36 -740973604 500170870 1447059845 1368426384
            -2121205332 361242648 698997676 36457124</internalNodes>
          <leafValues>
            -8.1810748577117920e-01 4.4696411490440369e-01</leafValues></_>
        <_>
          <internalNodes>
            0 -1 5 -68943925 -1208186133 2147350376 -297812362 536787817
            1258029046 -185868584 1439687343</internalNodes>
          <leafValues>
            -4.8205798864364624e-01 7.5010746717453003e-01</leafValues></_>
        <_>
          <internalNodes>
            0 -1 49 -170079434 -137198448 302039903 1774192030
            -905332531 -1832104951 135040764 985140252</internalNodes>
          <leafValues>
            -6.6079258918762207e-01 5.1834481954574585e-01</leafValues></_>
        <_>
          <internalNodes>
            0 -1 100 -228455960 341430882 1753583697 96944339
            -1073739106 843333925 -1866282725 57388795</internalNodes>
          <leafValues>
            -7.0004361867904663e-01 4.5758852362632751e-01</leafValues></_>
        <_>
          <internalNodes>
            0 -1 65 -1360495245 -19464477 1388246955 529465338
            2139015157 -285278743 383024633 261737323</internalNodes>
          <leafValues>
            -5.2517992258071899e-01 6.9311875104904175e-01</leafValues></_></weakClassifiers></_>
    <!-- stage 3 -->
    <_>
      <maxWeakCount>7</maxWeakCount>
      <stageThreshold>-5.6855803728103638e-01</stageThreshold>
      <weakClassifiers>
        <_>
          <internalNodes>
            0 -1 137 -26214657 -1241520482 -196630 -9437316 -136465473
            1722662641 -80483122 2012209039</internalNodes>
          <leafValues>
            -4.4210526347160339e-01 8.7619048357009888e-01</leafValues></_>
        <_>
          <internalNodes>
            0 -1 14 -270808321 1677717230 -21858518 -67113350 -276955188
            1568046847 -12652330 1104643599</internalNodes>
          <leafValues>
            -4.1128176450729370e-01 7.7177244424819946e-01</leafValues></_>
        <_>
          <internalNodes>
            0 -1 19 -325257066 2025988250 -1521396476 -620527486
            17411221 -532708800 -900396113 877874891</internalNodes>
          <leafValues>
            -5.7850933074951172e-01 5.8154463768005371e-01</leafValues></_>
        <_>
          <internalNodes>
            0 -1 17 -195971634 1371820090 319103116 -1778349944
            -1978807556 546867352 1250541480 1075878280</internalNodes>
          <leafValues>
            -8.4757626056671143e-01 3.9169088006019592e-01</leafValues></_>
        <_>
          <internalNodes>
            0 -1 125 -2238774 -31526993 -1074857416 2008875002
            1735318766 324107739 -276879397 1677180527</internalNodes>
          <leafValues>
            -5.6771773099899292e-01 5.9215313196182251e-01</leafValues></_>
        <_>
          <internalNodes>
            0 -1 109 -798629226 1434572944 -1878699767 -1357578078
            -2097049160 285739265 -860264033 1231219343</internalNodes>
          <leafValues>
            -6.3430446386337280e-01 5.5464422702789307e-01</leafValues></_>
        <_>
          <internalNodes>
            0 -1 124 -1268532842 -1325367294 -2130557940 922770369
            -2130687859 1376354440 671451663 1901449857</internalNodes>
          <leafValues>
            -5.7601422071456909e-01 5.9301191568374634e-01</leafValues></_></weakClassifiers></_>
    <!-- stage 4 -->
    <_>
      <maxWeakCount>6</maxWeakCount>
      <stageThreshold>-1.0698750019073486e+00</stageThreshold>
      <weakClassifiers>
        <_>
          <internalNodes>
            0 -1 136 -70268945 -758444041 -1140850716 1674833486
            -674388024 -1263566872 1860952047 1945889471</internalNodes>
          <leafValues>
            -4.3529412150382996e-01 8.7784433364868164e-01</leafValues></_>
        <_>
          <internalNodes>
            0 -1 67 -1159291174 2041244662 1073614399 -1780619297
            -2021663750 -218554401 -1352395522 1063761902</internalNodes>
          <leafValues>
            -4.6639850735664368e-01 7.2935140132904053e-01</leafValues></_>
        <_>
          <internalNodes>
            0 -1 2 -135271708 -1754333478 -17962398 -606233988
            2146881523 -1804084618 2070673391 1308620791</internalNodes>
          <leafValues>
            -5.5393683910369873e-01 6.1521697044372559e-01</leafValues></_>
        <_>
          <internalNodes>
            0 -1 135 1989778658 337252418 -804909848 -740253695
            1384565391 1346535554 1787554474 1440700894</internalNodes>
          <leafValues>
            -6.1238425970077515e-01 5.6706094741821289e-01</leafValues></_>
        <_>
          <internalNodes>
            0 -1 133 -212416210 -1626619695 1393041504 -1848705015
            -364674432 -2012707831 1653139775 1106703054</internalNodes>
          <leafValues>
            -6.0986489057540894e-01 5.5582082271575928e-01</leafValues></_>
        <_>
          <internalNodes>
            0 -1 62 -321726328 1459847576 1127350556 998654339
            -402087730 -1725069140 172394938 2135909248</internalNodes>
          <leafValues>
            -7.4059534072875977e-01 5.0823211669921875e-01</leafValues></_></weakClassifiers></_>
    <!-- stage 5 -->
    <_>
      <maxWeakCount>6</maxWeakCount>
      <stageThreshold>-9.5758324861526489e-01</stageThreshold>
      <weakClassifiers>
        <_>
          <internalNodes>
            0 -1 76 -672268606 -201475351 2144947564 2072608505
            2147479210 -1210585102 -1344413713 1904203519</internalNodes>
          <leafValues>
            -5.0000000000000000e-01 8.3333331346511841e-01</leafValues></_>
        <_>
          <internalNodes>
            0 -1 6 -79257394 2068398136 69640 1121030232 -1873182566
            -771194872 2031748059 1396941003</internalNodes>
          <leafValues>
            -6.2032896280288696e-01 6.3513851165771484e-01</leafValues></_>
        <_>
          <internalNodes>
            0 -1 25 -775700310 -237403904 -1056767800 -1043394424
            285835407 -1819770752 -2013011814 1996722623</internalNodes>
          <leafValues>
            -5.5142170190811157e-01 6.5051114559173584e-01</leafValues></_>
        <_>
          <internalNodes>
            0 -1 61 -1251982956 1897136603 268436488 1469153755
            -934241556 1036091450 -1728026069 621472227</internalNodes>
          <leafValues>
            -6.2323307991027832e-01 5.5856907367706299e-01</leafValues></_>
        <_>
          <internalNodes>
            0 -1 79 -208803598 -717907928 909413093 2005365877
            -1639578672 -756345313 1367188474 -1616927781</internalNodes>
          <leafValues>
            -4.5149299502372742e-01 7.3748618364334106e-01</leafValues></_>
        <_>
          <internalNodes>
            0 -1 132 -249839410 -674529200 285311044 696320034
            -528186976 268476416 -1040017240 1460609930</internalNodes>
          <leafValues>
            -5.9484153985977173e-01 6.0964930057525635e-01</leafValues></_></weakClassifiers></_>
    <!-- stage 6 -->
    <_>
      <maxWeakCount>7</maxWeakCount>
      <stageThreshold>-8.7064236402511597e-01</stageThreshold>
      <weakClassifiers>
        <_>
          <internalNodes>
            0 -1 21 -224723747 -151585044 -270598629 -9699715 -218103813
            -84674563 2128026552 -1355907075</internalNodes>
          <leafValues>
            -3.1905299425125122e-01 9.5792424678802490e-01</leafValues></_>
        <_>
          <internalNodes>
            0 -1 10 -202755 1903066863 -268435529 -979800065 -1824701716
            -1225293825 -209725892 -1813168180</internalNodes>
          <leafValues>
            -3.0385273694992065e-01 7.2875934839248657e-01</leafValues></_>
        <_>
          <internalNodes>
            0 -1 89 -748506974 -62750994 -2107723888 1561941971
            -992433960 1097279496 420583338 -605088090</internalNodes>
          <leafValues>
            -4.0306612849235535e-01 6.2692028284072876e-01</leafValues></_>
        <_>
          <internalNodes>
            0 -1 50 -2129637386 -1798235648 -2130640222 792281943
            -2146402062 -834645886 -1996418629 -1610830472</internalNodes>
          <leafValues>
            -5.0721961259841919e-01 5.5129957199096680e-01</leafValues></_>
        <_>
          <internalNodes>
            0 -1 91 -76904230 2080025384 -1148715360 -680694565
            -428547878 1382825445 -537971206 -741365025</internalNodes>
          <leafValues>
            -4.2534160614013672e-01 6.9940596818923950e-01</leafValues></_>
        <_>
          <internalNodes>
            0 -1 47 -1660939048 9994579 285354389 -1156475881
            -1635732317 -1448861311 -2004285255 1851361502</internalNodes>
          <leafValues>
            -5.5206966400146484e-01 5.6112098693847656e-01</leafValues></_>
        <_>
          <internalNodes>
            0 -1 110 -1921301264 -7080476 927699601 1568642680
            -1721919062 -1323831871 1576050107 -1416690273</internalNodes>
          <leafValues>
            -4.2263817787170410e-01 7.0626801252365112e-01</leafValues></_></weakClassifiers></_>
    <!-- stage 7 -->
    <_>
      <maxWeakCount>6</maxWeakCount>
      <stageThreshold>-7.0194286108016968e-01</stageThreshold>
      <weakClassifiers>
        <_>
          <internalNodes>
            0 -1 1 -269 -67109442 -531 -100802561 -1216950597
            -1342177418 -1132560682 -2113596</internalNodes>
          <leafValues>
            -3.4982332587242126e-01 9.2809587717056274e-01</leafValues></_>
        <_>
          <internalNodes>
            0 -1 112 -1129906689 707292789 -1073823761 -1110249475
            -196643 -447235 -1237713180 -1095980332</internalNodes>
          <leafValues>
            -3.9419391751289368e-01 7.3834240436553955e-01</leafValues></_>
        <_>
          <internalNodes>
            0 -1 34 -587309849 -1028 -1090650378 -1092174210 -27568269
            -17096711 -1073907713 -1342802055</internalNodes>
          <leafValues>
            -4.2439562082290649e-01 6.8057352304458618e-01</leafValues></_>
        <_>
          <internalNodes>
            0 -1 46 -614337641 -1283972856 -182807213 1966376779
            -786845491 -115298120 -645279672 952107024</internalNodes>
          <leafValues>
            -6.0143291950225830e-01 5.1629418134689331e-01</leafValues></_>
        <_>
          <internalNodes>
            0 -1 68 -783640112 -1253195776 16789660 1544306717
            -1275029928 1491771532 8964786 -2126174182</internalNodes>
          <leafValues>
            -5.8720713853836060e-01 5.3530746698379517e-01</leafValues></_>
        <_>
          <internalNodes>
            0 -1 84 -771243038 2086404120 -1660840525 2052621660
            -1844965232 -775399219 27810016 -1897339480</internalNodes>
          <leafValues>
            -5.6758624315261841e-01 5.8890897035598755e-01</leafValues></_></weakClassifiers></_>
    <!-- stage 8 -->
    <_>
      <maxWeakCount>8</maxWeakCount>
      <stageThreshold>-8.3124363422393799e-01</stageThreshold>
      <weakClassifiers>
        <_>
          <internalNodes>
            0 -1 24 -319228169 -671088653 1810868187 -573706563
            -1611432226 -1179123785 -25167985 -612368483</internalNodes>
          <leafValues>
            -3.0933633446693420e-01 9.4936710596084595e-01</leafValues></_>
        <_>
          <internalNodes>
            0 -1 8 -1877786150 -1794600956 285299096 -750944231
            268451991 903381129 -1962882338 2005904275</internalNodes>
          <leafValues>
            -5.5990219116210938e-01 5.7912647724151611e-01</leafValues></_>
        <_>
          <internalNodes>
            0 -1 128 2129258217 -33563140 -1493664086 1602027191
            -21692929 -891916295 1610313579 1370993634</internalNodes>
          <leafValues>
            -5.1199960708618164e-01 5.7509297132492065e-01</leafValues></_>
        <_>
          <internalNodes>
            0 -1 114 -1878859648 352434624 482686045 -1794647239
            1108067306 89398964 -1135457543 -72674149</internalNodes>
          <leafValues>
            -4.2258372902870178e-01 6.7602175474166870e-01</leafValues></_>
        <_>
          <internalNodes>
            0 -1 116 275021877 -267382384 -1073737219 1838164490
            990423431 1417742416 680036525 698081625</internalNodes>
          <leafValues>
            -5.9152811765670776e-01 5.0779688358306885e-01</leafValues></_>
        <_>
          <internalNodes>
            0 -1 92 -1964604928 -76645198 782677493 -4858752 1280880362
            -548126891 -1329056834 -582277413</internalNodes>
          <leafValues>
            -4.6352872252464294e-01 6.9173824787139893e-01</leafValues></_>
        <_>
          <internalNodes>
            0 -1 63 1342219412 -581696556 67141634 -44302280 -2011692988
            -1274965999 677432209 1472018955</internalNodes>
          <leafValues>
            -6.3326996564865112e-01 4.8940262198448181e-01</leafValues></_>
        <_>
          <internalNodes>
            0 -1 134 -1055095744 -595574526 1224769680 367034564
            16838801 -1053689776 1101644424 -714325209</internalNodes>
          <leafValues>
            -6.6457086801528931e-01 4.7520694136619568e-01</leafValues></_></weakClassifiers></_>
    <!-- stage 9 -->
    <_>
      <maxWeakCount>6</maxWeakCount>
      <stageThreshold>-1.3581100702285767e+00</stageThreshold>
      <weakClassifiers>
        <_>
          <internalNodes>
            0 -1 9 -33793 -536936521 -72143 -34603073 -1092659234
            -583041177 801090815 -536903683</internalNodes>
          <leafValues>
            -3.2945284247398376e-01 9.2172741889953613e-01</leafValues></_>
        <_>
          <internalNodes>
            0 -1 86 -705712422 2077097754 -1084342283 2132666640
            -1686257678 1039013864 -956555784 1804595807</internalNodes>
          <leafValues>
            -3.6276155710220337e-01 6.9398325681686401e-01</leafValues></_>
        <_>
          <internalNodes>
            0 -1 45 -16079117 -69222723 2147090415 -1102282963
            -890882770 -338483202 510326639 1201890719</internalNodes>
          <leafValues>
            -4.5745688676834106e-01 5.7457774877548218e-01</leafValues></_>
        <_>
          <internalNodes>
            0 -1 70 -860700968 -51090400 1056717457 1399008675
            -895177490 -350325184 125537962 -586440513</internalNodes>
          <leafValues>
            -4.1573342680931091e-01 6.6717845201492310e-01</leafValues></_>
        <_>
          <internalNodes>
            0 -1 121 354351336 -1861967801 -2139089604 -384554859
            -804642387 -256860156 -467304043 2042693679</internalNodes>
          <leafValues>
            -6.1568844318389893e-01 4.5488709211349487e-01</leafValues></_>
        <_>
          <internalNodes>
            0 -1 105 -22088306 -171679454 -831161187 1572050982
            -782528340 -27042059 1595001598 -605074653</internalNodes>
          <leafValues>
            -4.2819708585739136e-01 6.8252104520797729e-01</leafValues></_></weakClassifiers></_>
    <!-- stage 10 -->
    <_>
      <maxWeakCount>8</maxWeakCount>
      <stageThreshold>-6.2293672561645508e-01</stageThreshold>
      <weakClassifiers>
        <_>
          <internalNodes>
            0 -1 27 -85329921 -6032411 1325312991 2012016559 -1621098499
            -335609890 -671617283 -1078468616</internalNodes>
          <leafValues>
            -3.1299436092376709e-01 9.4685316085815430e-01</leafValues></_>
        <_>
          <internalNodes>
            0 -1 15 -653143642 -1677361132 -1056354019 -49264355
            1745661087 865271942 -651650403 1935247984</internalNodes>
          <leafValues>
            -5.4425531625747681e-01 5.6021136045455933e-01</leafValues></_>
        <_>
          <internalNodes>
            0 -1 98 988763345 938409702 1022849261 -218523 -301990668
            -590354722 1702313275 1530920247</internalNodes>
          <leafValues>
            -4.6194645762443542e-01 6.0970467329025269e-01</leafValues></_>
        <_>
          <internalNodes>
            0 -1 51 -1234708777 -122929323 703487864 -2113540
            -1124125489 -1082294339 1601799658 985422479</internalNodes>
          <leafValues>
            -4.8250493407249451e-01 5.6094157695770264e-01</leafValues></_>
        <_>
          <internalNodes>
            0 -1 106 -582634319 -677099948 511555581 2135006828
            754380538 -1184297045 533142947 -1135503449</internalNodes>
          <leafValues>
            -3.8061875104904175e-01 6.9607752561569214e-01</leafValues></_>
        <_>
          <internalNodes>
            0 -1 127 -175094652 1392558224 27281564 -712241019
            -1065283152 814252160 640207772 -645919678</internalNodes>
          <leafValues>
            -5.3569287061691284e-01 5.0059229135513306e-01</leafValues></_>
        <_>
          <internalNodes>
            0 -1 101 -1387097894 -786088784 -1208704073 -1690029951
            -1469653357 -1898526610 1983676574 -1152711843</internalNodes>
          <leafValues>
            -4.6145778894424438e-01 5.9472250938415527e-01</leafValues></_>
        <_>
          <internalNodes>
            0 -1 18 -1002252326 -1749483389 -1979411556 753566811
            721506603 -1064681079 50940677 -785901128</internalNodes>
          <leafValues>
            -6.2398356199264526e-01 4.7680211067199707e-01</leafValues></_></weakClassifiers></_>
    <!-- stage 11 -->
    <_>
      <maxWeakCount>6</maxWeakCount>
      <stageThreshold>-7.4678409099578857e-01</stageThreshold>
      <weakClassifiers>
        <_>
          <internalNodes>
            0 -1 30 -318836865 -1745093769 2063515387 -3686481
            -122273801 -553677953 -25182465 -1050643</internalNodes>
          <leafValues>
            -3.2179930806159973e-01 9.2633014917373657e-01</leafValues></_>
        <_>
          <internalNodes>
            0 -1 78 -766299599 -1576972174 -2147429491 -271253414
            -2042572556 2126325939 -1491040110 445710811</internalNodes>
          <leafValues>
            -4.9262160062789917e-01 5.6519639492034912e-01</leafValues></_>
        <_>
          <internalNodes>
            0 -1 104 -1633950723 830258230 1946106399 -14813196
            -86607655 -1677926595 503109086 -2063821352</internalNodes>
          <leafValues>
            -4.4922113418579102e-01 6.3356244564056396e-01</leafValues></_>
        <_>
          <internalNodes>
            0 -1 38 -86285 1937502190 -71406609 2127095031 -1367343294
            -8986633 -304228353 -1369639132</internalNodes>
          <leafValues>
            -4.3451899290084839e-01 6.0643243789672852e-01</leafValues></_>
        <_>
          <internalNodes>
            0 -1 7 1083168078 793580753 235422166 -49258394 278012666
            386433056 -343700881 1413677668</internalNodes>
          <leafValues>
            -7.0922112464904785e-01 3.6101332306861877e-01</leafValues></_>
        <_>
          <internalNodes>
            0 -1 83 -142942256 -673775919 1605695349 1978908867
            -823788880 -1305105169 1483931355 -2008329878</internalNodes>
          <leafValues>
            -4.3817135691642761e-01 6.3315141201019287e-01</leafValues></_></weakClassifiers></_>
    <!-- stage 12 -->
    <_>
      <maxWeakCount>6</maxWeakCount>
      <stageThreshold>-7.0324432849884033e-01</stageThreshold>
      <weakClassifiers>
        <_>
          <internalNodes>
            0 -1 11 -85470009 1843328630 1052571384 -140780804
            1308082175 2113191934 -1073741826 2078275551</internalNodes>
          <leafValues>
            -4.0848806500434875e-01 8.3687943220138550e-01</leafValues></_>
        <_>
          <internalNodes>
            0 -1 64 -1591059343 -244777047 1860157427 1978149883
            2111790829 -272140436 -1686290702 1308571647</internalNodes>
          <leafValues>
            -4.7127467393875122e-01 6.6166520118713379e-01</leafValues></_>
        <_>
          <internalNodes>
            0 -1 23 -151093595 -416334214 -167871298 -949080837
            -79274605 1987409531 -2728453 1810881783</internalNodes>
          <leafValues>
            -4.6989062428474426e-01 6.2521159648895264e-01</leafValues></_>
        <_>
          <internalNodes>
            0 -1 44 1209679989 909969044 1763807524 -182314563
            1276131903 1896908170 -1872191102 926329871</internalNodes>
          <leafValues>
            -6.2734508514404297e-01 4.6759071946144104e-01</leafValues></_>
        <_>
          <internalNodes>
            0 -1 90 341886704 293924079 -1423829 -110791711 1717393081
            -1702305452 -1470970229 -540081414</internalNodes>
          <leafValues>
            -4.2302498221397400e-01 7.0625948905944824e-01</leafValues></_>
        <_>
          <internalNodes>
            0 -1 53 472175844 1599913966 804273502 1869381484 -10569764
            -2014009352 510192111 -831416678</internalNodes>
          <leafValues>
            -4.9325892329216003e-01 6.1143982410430908e-01</leafValues></_></weakClassifiers></_>
    <!-- stage 13 -->
    <_>
      <maxWeakCount>8</maxWeakCount>
      <stageThreshold>-8.3769541978836060e-01</stageThreshold>
      <weakClassifiers>
        <_>
          <internalNodes>
            0 -1 54 1047885043 -557056372 -201375755 -134226211
            -1342177314 -185124932 1743777754 2079325855</internalNodes>
          <leafValues>
            -3.7055838108062744e-01 8.5221672058105469e-01</leafValues></_>
        <_>
          <internalNodes>
            0 -1 26 -67724545 -16793799 -1212252229 -844532745
            1735915742 -1124598298 -2445575 -371720388</internalNodes>
          <leafValues>
            -3.0585074424743652e-01 7.8611600399017334e-01</leafValues></_>
        <_>
          <internalNodes>
            0 -1 126 1810278357 -1145290909 -268501794 435061731
            -177222157 -757274633 1769799039 530972186</internalNodes>
          <leafValues>
            -4.1224497556686401e-01 5.9742164611816406e-01</leafValues></_>
        <_>
          <internalNodes>
            0 -1 107 -578819333 -582484545 -1347322119 1110897912
            2146267763 -147998366 -1073825485 -930982853</internalNodes>
          <leafValues>
            -4.3038329482078552e-01 5.7692813873291016e-01</leafValues></_>
        <_>
          <internalNodes>
            0 -1 75 -1554687981 1632179209 806423932 -1139932392
            172589164 -707622749 -1048508314 755011755</internalNodes>
          <leafValues>
            -5.8365410566329956e-01 4.6689152717590332e-01</leafValues></_>
        <_>
          <internalNodes>
            0 -1 74 -814711374 238811772 -303141019 -1884823793
            -808551732 -164659881 -1287333122 -32772485</internalNodes>
          <leafValues>
            -4.6712100505828857e-01 5.6767141819000244e-01</leafValues></_>
        <_>
          <internalNodes>
            0 -1 56 -179285352 105455706 1346416856 -1828445952
            151300124 1575554 -1543499071 1539053283</internalNodes>
          <leafValues>
            -7.1993398666381836e-01 3.5327789187431335e-01</leafValues></_>
        <_>
          <internalNodes>
            0 -1 82 -1488031471 -51326828 1678804058 1965232578
            407392732 2026406912 -778825041 468459584</internalNodes>
          <leafValues>
            -6.1279380321502686e-01 4.3507295846939087e-01</leafValues></_></weakClassifiers></_>
    <!-- stage 14 -->
    <_>
      <maxWeakCount>8</maxWeakCount>
      <stageThreshold>-8.5416930913925171e-01</stageThreshold>
      <weakClassifiers>
        <_>
          <internalNodes>
            0 -1 4 -1410433281 -67109138 -16385 -1209009153 1064785631
            -285214819 -8538113 -4259843</internalNodes>
          <leafValues>
            -3.0326944589614868e-01 9.3828892707824707e-01</leafValues></_>
        <_>
          <internalNodes>
            0 -1 69 -1095803151 -1090855111 -2031101319 1508861751
            -1637449768 -1225851023 -43581506 1493349851</internalNodes>
          <leafValues>
            -3.5907363891601562e-01 6.4773476123809814e-01</leafValues></_>
        <_>
          <internalNodes>
            0 -1 123 -874555436 -100926613 1778104949 -1520656710
            -143711159 -188383237 -294171619 -190787636</internalNodes>
          <leafValues>
            -4.6165964007377625e-01 5.4251450300216675e-01</leafValues></_>
        <_>
          <internalNodes>
            0 -1 129 1343398010 1297195153 88982122 1157660807
            1234002131 -1866399727 -351712534 267615693</internalNodes>
          <leafValues>
            -6.1606174707412720e-01 4.0814578533172607e-01</leafValues></_>
        <_>
          <internalNodes>
            0 -1 59 853234598 476893278 553681240 1838170397 -360281440
            -1432122177 -1323789770 -638826652</internalNodes>
          <leafValues>
            -5.3302824497222900e-01 4.5359414815902710e-01</leafValues></_>
        <_>
          <internalNodes>
            0 -1 77 -1459301806 1553006736 277917787 1607286797
            1493282176 -1960107983 -394094419 1034596747</internalNodes>
          <leafValues>
            -6.1029475927352905e-01 4.7931909561157227e-01</leafValues></_>
        <_>
          <internalNodes>
            0 -1 88 -990296476 281801041 -2147352421 1663795409
            268534294 -1054830557 893518640 -835585526</internalNodes>
          <leafValues>
            -5.3276211023330688e-01 5.3714907169342041e-01</leafValues></_>
        <_>
          <internalNodes>
            0 -1 85 -1639788296 -641087392 -2084770913 -1783894949
            -1366119047 -1941537197 501053859 -97522251</internalNodes>
          <leafValues>
            -4.5565801858901978e-01 6.1359930038452148e-01</leafValues></_></weakClassifiers></_>
    <!-- stage 15 -->
    <_>
      <maxWeakCount>9</maxWeakCount>
      <stageThreshold>-1.0950113534927368e+00</stageThreshold>
      <weakClassifiers>
        <_>
          <internalNodes>
            0 -1 29 536604383 -590081 -402669573 2071981815 -37748741
            -269025347 -1573121 -1174405123</internalNodes>
          <leafValues>
            -2.5902336835861206e-01 9.7872340679168701e-01</leafValues></_>
        <_>
          <internalNodes>
            0 -1 22 -333734545 -344409091 -33074 1584328445 939420720
            1048542799 1610563536 1447769687</internalNodes>
          <leafValues>
            -4.4905290007591248e-01 5.3482890129089355e-01</leafValues></_>
        <_>
          <internalNodes>
            0 -1 37 -152152837 -8392786 -1398870145 -235475354
            -310971683 -118694534 -587792490 -672986119</internalNodes>
          <leafValues>
            -3.9838972687721252e-01 6.3105672597885132e-01</leafValues></_>
        <_>
          <internalNodes>
            0 -1 102 -506208040 -237388092 979398709 -650248635
            -272302166 -1815513227 2068594152 -1629794610</internalNodes>
          <leafValues>
            -3.4479230642318726e-01 6.2780231237411499e-01</leafValues></_>
        <_>
          <internalNodes>
            0 -1 97 -404810760 1460686916 1342194024 362807322
            -230678084 -2126249856 1015118052 -1619237949</internalNodes>
          <leafValues>
            -5.3343468904495239e-01 4.4948920607566833e-01</leafValues></_>
        <_>
          <internalNodes>
            0 -1 0 -1071193644 112757977 496702203 1211638104
            -2121986804 146366546 -98880700 2085953319</internalNodes>
          <leafValues>
            -6.6036814451217651e-01 3.7594807147979736e-01</leafValues></_>
        <_>
          <internalNodes>
            0 -1 80 -83635522 -1087527709 1303756244 2052062932
            -317456205 -1812382994 -144396418 -142094942</internalNodes>
          <leafValues>
            -4.2706233263015747e-01 6.6022211313247681e-01</leafValues></_>
        <_>
          <internalNodes>
            0 -1 113 945099859 1767364102 -720863115 488472713
            -414611388 -1574764129 -517698933 -589032932</internalNodes>
          <leafValues>
            -5.0413435697555542e-01 5.5307567119598389e-01</leafValues></_>
        <_>
          <internalNodes>
            0 -1 93 1240227224 751261608 1031772137 -2027291859
            -814836541 -264889559 -1302460549 -1543808142</internalNodes>
          <leafValues>
            -5.2187550067901611e-01 5.3850871324539185e-01</leafValues></_></weakClassifiers></_>
    <!-- stage 16 -->
    <_>
      <maxWeakCount>6</maxWeakCount>
      <stageThreshold>-1.2353383302688599e+00</stageThreshold>
      <weakClassifiers>
        <_>
          <internalNodes>
            0 -1 28 -94636161 -1048585 1191182271 -270714885 -1400963122
            -33587213 -1610612737 -264195</internalNodes>
          <leafValues>
            -2.7155172824859619e-01 9.7023808956146240e-01</leafValues></_>
        <_>
          <internalNodes>
            0 -1 72 -1400144581 -1158514705 -1209117961 -709237874
            -1753270273 -13740033 930605022 1520041419</internalNodes>
          <leafValues>
            -3.1642547249794006e-01 6.5725457668304443e-01</leafValues></_>
        <_>
          <internalNodes>
            0 -1 130 -1704389 -1107555079 1878175912 993310188
            -545290286 -1212907660 -319002645 1431739862</internalNodes>
          <leafValues>
            -4.7253438830375671e-01 4.9780914187431335e-01</leafValues></_>
        <_>
          <internalNodes>
            0 -1 111 -1862270956 -543992000 1082939 -548368126
            -989724511 -1642430204 -2012942164 -1829797253</internalNodes>
          <leafValues>
            -4.7519809007644653e-01 5.0767529010772705e-01</leafValues></_>
        <_>
          <internalNodes>
            0 -1 42 -227082457 2016358030 -1124597763 -271337761
            1994880847 -562202635 -1350801776 -1073750908</internalNodes>
          <leafValues>
            -4.0861830115318298e-01 6.0478234291076660e-01</leafValues></_>
        <_>
          <internalNodes>
            0 -1 87 1641659324 -1710353981 -1711206474 -763047841
            833095875 -1160117622 -880735726 1596827219</internalNodes>
          <leafValues>
            -5.3280007839202881e-01 4.9492433667182922e-01</leafValues></_></weakClassifiers></_>
    <!-- stage 17 -->
    <_>
      <maxWeakCount>9</maxWeakCount>
      <stageThreshold>-1.1007413864135742e+00</stageThreshold>
      <weakClassifiers>
        <_>
          <internalNodes>
            0 -1 117 -2392141 930085886 -1095795275 -1216679942
            -545390873 -32775 -251805953 2045767679</internalNodes>
          <leafValues>
            -3.7290322780609131e-01 8.3515149354934692e-01</leafValues></_>
        <_>
          <internalNodes>
            0 -1 103 -85164321 1503977198 -1083311725 -1182947601
            1576499931 -1083281411 -1499706259 -110340100</internalNodes>
          <leafValues>
            -3.9710158109664917e-01 6.7198365926742554e-01</leafValues></_>
        <_>
          <internalNodes>
            0 -1 58 645206893 1973411827 -1092042946 -1225296962
            1067974479 1992275934 -1073781295 2112604147</internalNodes>
          <leafValues>
            -4.8299741744995117e-01 5.4639178514480591e-01</leafValues></_>
        <_>
          <internalNodes>
            0 -1 94 1977306000 -1280742816 -559939871 1701683316
            -2044243131 -1110750375 -146521655 -638863415</internalNodes>
          <leafValues>
            -4.6690180897712708e-01 5.1559197902679443e-01</leafValues></_>
        <_>
          <internalNodes>
            0 -1 81 -606095648 -105022282 -160829427 -46191552
            -1352867906 -981512668 -1620445730 -1638154630</internalNodes>
          <leafValues>
            -4.1523680090904236e-01 6.1882084608078003e-01</leafValues></_>
        <_>
          <internalNodes>
            0 -1 35 -144736427 1868414914 -1128829221 896116446 -4752907
            854065015 1996127535 -306200835</internalNodes>
          <leafValues>
            -3.8060009479522705e-01 6.9597685337066650e-01</leafValues></_>
        <_>
          <internalNodes>
            0 -1 20 -758849609 -2071015166 -1593769162 -527260578
            1074602361 -2143780472 -1325098480 1675876357</internalNodes>
          <leafValues>
            -5.5655479431152344e-01 4.8815456032752991e-01</leafValues></_>
        <_>
          <internalNodes>
            0 -1 48 -1034747530 -548338512 -1072609747 338886776
            -80705894 -1743772655 -1869539065 1420509395</internalNodes>
          <leafValues>
            -5.8890140056610107e-01 4.6538633108139038e-01</leafValues></_>
        <_>
          <internalNodes>
            0 -1 96 -55747334 -252216713 1525026381 -1268956860
            532102852 -904379771 1087504122 -218190341</internalNodes>
          <leafValues>
            -5.0080502033233643e-01 5.8405166864395142e-01</leafValues></_></weakClassifiers></_>
    <!-- stage 18 -->
    <_>
      <maxWeakCount>7</maxWeakCount>
      <stageThreshold>-1.3647539615631104e+00</stageThreshold>
      <weakClassifiers>
        <_>
          <internalNodes>
            0 -1 13 -150994979 -704647426 2129657631 -71307649
            -536940565 -545783809 -545260552 -1143013379</internalNodes>
          <leafValues>
            -2.6360726356506348e-01 9.7586727142333984e-01</leafValues></_>
        <_>
          <internalNodes>
            0 -1 16 420794038 -1819015543 285292408 -2043141816
            273164339 312254603 17313934 1004193963</internalNodes>
          <leafValues>
            -5.2037984132766724e-01 5.1362389326095581e-01</leafValues></_>
        <_>
          <internalNodes>
            0 -1 40 -284706021 -336106757 2113748967 -209879305
            1743122341 -1896038405 2004344830 -89901344</internalNodes>
          <leafValues>
            -4.3294873833656311e-01 6.0170447826385498e-01</leafValues></_>
        <_>
          <internalNodes>
            0 -1 71 109790741 -1184874171 -501788389 906170682 276956081
            2038598467 -1427248475 -171410372</internalNodes>
          <leafValues>
            -4.8929673433303833e-01 4.7700539231300354e-01</leafValues></_>
        <_>
          <internalNodes>
            0 -1 43 -838090142 -137558617 1056808 1902009346 1830982064
            -1030026441 1621410238 1147552287</internalNodes>
          <leafValues>
            -6.4264571666717529e-01 3.8203790783882141e-01</leafValues></_>
        <_>
          <internalNodes>
            0 -1 95 -655035720 2001055540 -700426276 -1913293153
            -629632600 -746725788 122548957 -681602498</internalNodes>
          <leafValues>
            -4.7131282091140747e-01 5.3169381618499756e-01</leafValues></_>
        <_>
          <internalNodes>
            0 -1 122 1493280114 -28770128 1610728578 -1850965840
            -867073476 1905262880 -1979135829 1676239247</internalNodes>
          <leafValues>
            -6.0325014591217041e-01 4.2704328894615173e-01</leafValues></_></weakClassifiers></_>
    <!-- stage 19 -->
    <_>
      <maxWeakCount>8</maxWeakCount>
      <stageThreshold>-6.3112169504165649e-01</stageThreshold>
      <weakClassifiers>
        <_>
          <internalNodes>
            0 -1 12 738000885 -51380225 -20971521 -33554785 660815615
            -1644707847 1979660287 -16779283</internalNodes>
          <leafValues>
            -3.1481480598449707e-01 9.1304349899291992e-01</leafValues></_>
        <_>
          <internalNodes>
            0 -1 31 -1479519493 -268669001 637448041 -432740385
            -68695054 -617316546 1464332734 -203227204</internalNodes>
          <leafValues>
            -3.2901838421821594e-01 6.7684340476989746e-01</leafValues></_>
        <_>
          <internalNodes>
            0 -1 120 -73757 960495615 801109568 -508760337 -671092891
            -1107311151 2112345802 1104408031</internalNodes>
          <leafValues>
            -4.3729975819587708e-01 5.1630073785781860e-01</leafValues></_>
        <_>
          <internalNodes>
            0 -1 99 -1762864728 -651372212 754296701 -651955100
            -1260929366 -1939203472 468863182 -1694783010</internalNodes>
          <leafValues>
            -3.8786599040031433e-01 5.5385237932205200e-01</leafValues></_>
        <_>
          <internalNodes>
            0 -1 41 -1364214867 -73995 -19182101 -1327104268 -444760394
            -1679693955 -293673834 -335929355</internalNodes>
          <leafValues>
            -3.7440878152847290e-01 6.4124047756195068e-01</leafValues></_>
        <_>
          <internalNodes>
            0 -1 73 1843719936 1456750914 -2096991834 -786937718
            -1568566460 -1719039942 -501620036 1354661946</internalNodes>
          <leafValues>
            -6.7008692026138306e-01 3.7171006202697754e-01</leafValues></_>
        <_>
          <internalNodes>
            0 -1 57 -702719887 1209795856 1695748939 328765924
            -1575461742 -1741661046 713105773 1839528702</internalNodes>
          <leafValues>
            -5.7727468013763428e-01 4.1781228780746460e-01</leafValues></_>
        <_>
          <internalNodes>
            0 -1 115 1629142541 1157054233 1609688831 -605656400
            -185856515 460682563 -832799761 -1659346734</internalNodes>
          <leafValues>
            -4.5132043957710266e-01 5.5738854408264160e-01</leafValues></_></weakClassifiers></_></stages>
  <features>
    <_>
      <rect>
        0 10 13 10</rect></_>
    <_>
      <rect>
        0 27 11 3</rect></_>
    <_>
      <rect>
        0 37 5 1</rect></_>
    <_>
      <rect>
        1 16 15 8</rect></_>
    <_>
      <rect>
        1 25 21 5</rect></_>
    <_>
      <rect>
        1 28 1 4</rect></_>
    <_>
      <rect>
        1 31 1 1</rect></_>
    <_>
      <rect>
        2 1 24 7</rect></_>
    <_>
      <rect>
        2 25 26 5</rect></_>
    <_>
      <rect>
        3 25 16 5</rect></_>
    <_>
      <rect>
        3 26 9 4</rect></_>
    <_>
      <rect>
        3 27 1 4</rect></_>
    <_>
      <rect>
        3 27 19 3</rect></_>
    <_>
      <rect>
        3 29 16 1</rect></_>
    <_>
      <rect>
        4 28 1 3</rect></_>
    <_>
      <rect>
        5 23 25 5</rect></_>
    <_>
      <rect>
        5 25 19 5</rect></_>
    <_>
      <rect>
        6 0 24 12</rect></_>
    <_>
      <rect>
        6 25 6 5</rect></_>
    <_>
      <rect>
        7 34 2 2</rect></_>
    <_>
      <rect>
        8 5 8 9</rect></_>
    <_>
      <rect>
        8 29 11 1</rect></_>
    <_>
      <rect>
        9 27 3 4</rect></_>
    <_>
      <rect>
        9 27 8 4</rect></_>
    <_>
      <rect>
        9 28 10 2</rect></_>
    <_>
      <rect>
        9 32 1 1</rect></_>
    <_>
      <rect>
        10 26 6 4</rect></_>
    <_>
      <rect>
        10 28 9 2</rect></_>
    <_>
      <rect>
        11 26 11 4</rect></_>
    <_>
      <rect>
        13 29 9 1</rect></_>
    <_>
      <rect>
        14 25 8 5</rect></_>
    <_>
      <rect>
        14 26 5 4</rect></_>
    <_>
      <rect>
        15 15 6 8</rect></_>
    <_>
      <rect>
        15 22 21 6</rect></_>
    <_>
      <rect>
        15 26 7 4</rect></_>
    <_>
      <rect>
        17 27 4 3</rect></_>
    <_>
      <rect>
        18 1 20 13</rect></_>
    <_>
      <rect>
        18 27 4 3</rect></_>
    <_>
      <rect>
        18 28 4 2</rect></_>
    <_>
      <rect>
        19 22 13 6</rect></_>
    <_>
      <rect>
        19 25 3 4</rect></_>
    <_>
      <rect>
        19 29 3 1</rect></_>
    <_>
      <rect>
        20 7 11 4</rect></_>
    <_>
      <rect>
        20 11 10 5</rect></_>
    <_>
      <rect>
        20 25 7 5</rect></_>
    <_>
      <rect>
        21 27 2 3</rect></_>
    <_>
      <rect>
        22 1 13 13</rect></_>
    <_>
      <rect>
        22 25 15 5</rect></_>
    <_>
      <rect>
        22 28 14 2</rect></_>
    <_>
      <rect>
        23 11 8 8</rect></_>
    <_>
      <rect>
        23 24 10 5</rect></_>
    <_>
      <rect>
        23 25 5 5</rect></_>
    <_>
      <rect>
        23 25 6 5</rect></_>
    <_>
      <rect>
        24 28 1 1</rect></_>
    <_>
      <rect>
        24 29 10 1</rect></_>
    <_>
      <rect>
        24 33 11 1</rect></_>
    <_>
      <rect>
        25 12 10 9</rect></_>
    <_>
      <rect>
        25 22 4 6</rect></_>
    <_>
      <rect>
        25 25 6 5</rect></_>
    <_>
      <rect>
        25 27 4 2</rect></_>
    <_>
      <rect>
        26 24 3 4</rect></_>
    <_>
      <rect>
        26 25 7 5</rect></_>
    <_>
      <rect>
        27 8 9 8</rect></_>
    <_>
      <rect>
        27 14 5 8</rect></_>
    <_>
      <rect>
        27 25 7 5</rect></_>
    <_>
      <rect>
        28 29 4 2</rect></_>
    <_>
      <rect>
        29 22 9 6</rect></_>
    <_>
      <rect>
        30 29 7 3</rect></_>
    <_>
      <rect>
        32 24 1 1</rect></_>
    <_>
      <rect>
        32 31 2 1</rect></_>
    <_>
      <rect>
        33 19 1 1</rect></_>
    <_>
      <rect>
        33 24 4 5</rect></_>
    <_>
      <rect>
        33 29 6 3</rect></_>
    <_>
      <rect>
        34 8 5 5</rect></_>
    <_>
      <rect>
        34 15 2 2</rect></_>
    <_>
      <rect>
        34 30 8 2</rect></_>
    <_>
      <rect>
        34 37 1 1</rect></_>
    <_>
      <rect>
        35 21 2 1</rect></_>
    <_>
      <rect>
        35 28 13 3</rect></_>
    <_>
      <rect>
        36 13 1 1</rect></_>
    <_>
      <rect>
        36 13 1 3</rect></_>
    <_>
      <rect>
        36 18 1 1</rect></_>
    <_>
      <rect>
        36 26 5 3</rect></_>
    <_>
      <rect>
        37 17 2 1</rect></_>
    <_>
      <rect>
        37 19 6 6</rect></_>
    <_>
      <rect>
        37 23 2 1</rect></_>
    <_>
      <rect>
        37 27 1 3</rect></_>
    <_>
      <rect>
        37 30 5 3</rect></_>
    <_>
      <rect>
        38 8 4 6</rect></_>
    <_>
      <rect>
        38 16 1 1</rect></_>
    <_>
      <rect>
        38 17 2 1</rect></_>
    <_>
      <rect>
        38 19 1 1</rect></_>
    <_>
      <rect>
        38 23 1 1</rect></_>
    <_>
      <rect>
        38 27 1 1</rect></_>
    <_>
      <rect>
        39 12 3 3</rect></_>
    <_>
      <rect>
        39 16 1 1</rect></_>
    <_>
      <rect>
        39 19 1 1</rect></_>
    <_>
      <rect>
        39 26 1 2</rect></_>
    <_>
      <rect>
        39 29 4 1</rect></_>
    <_>
      <rect>
        40 15 1 1</rect></_>
    <_>
      <rect>
        40 19 1 1</rect></_>
    <_>
      <rect>
        40 21 1 1</rect></_>
    <_>
      <rect>
        40 21 2 1</rect></_>
    <_>
      <rect>
        40 25 5 4</rect></_>
    <_>
      <rect>
        40 27 4 2</rect></_>
    <_>
      <rect>
        41 17 1 1</rect></_>
    <_>
      <rect>
        42 9 6 4</rect></_>
    <_>
      <rect>
        43 0 12 9</rect></_>
    <_>
      <rect>
        43 22 7 6</rect></_>
    <_>
      <rect>
        44 12 6 4</rect></_>
    <_>
      <rect>
        44 16 2 1</rect></_>
    <_>
      <rect>
        44 19 1 1</rect></_>
    <_>
      <rect>
        44 19 9 7</rect></_>
    <_>
      <rect>
        44 26 4 3</rect></_>
    <_>
      <rect>
        45 18 1 1</rect></_>
    <_>
      <rect>
        46 15 4 3</rect></_>
    <_>
      <rect>
        46 25 8 5</rect></_>
    <_>
      <rect>
        47 26 10 4</rect></_>
    <_>
      <rect>
        49 1 8 13</rect></_>
    <_>
      <rect>
        49 22 3 6</rect></_>
    <_>
      <rect>
        51 26 8 4</rect></_>
    <_>
      <rect>
        54 28 5 4</rect></_>
    <_>
      <rect>
        54 36 1 1</rect></_>
    <_>
      <rect>
        58 25 4 4</rect></_>
    <_>
      <rect>
        59 30 5 3</rect></_>
    <_>
      <rect>
        67 34 2 2</rect></_>
    <_>
      <rect>
        68 28 3 2</rect></_>
    <_>
      <rect>
        69 28 1 1</rect></_>
    <_>
      <rect>
        69 28 3 3</rect></_>
    <_>
      <rect>
        69 31 1 1</rect></_>
    <_>
      <rect>
        69 31 1 3</rect></_>
    <_>
      <rect>
        69 36 1 1</rect></_>
    <_>
      <rect>
        70 33 1 1</rect></_>
    <_>
      <rect>
        70 36 1 1</rect></_>
    <_>
      <rect>
        71 28 1 1</rect></_>
    <_>
      <rect>
        72 30 2 2</rect></_>
    <_>
      <rect>
        74 30 1 3</rect></_>
    <_>
      <rect>
        74 33 2 2</rect></_></features></cascade>
</opencv_storage>
